digraph Tree {
node [shape=box] ;
0 [label="X[3] <= 0.5\ngini = 0.262\nsamples = 1456\nvalue = [226, 1230]"] ;
1 [label="gini = 0.0\nsamples = 226\nvalue = [226, 0]"] ;
0 -> 1 [labeldistance=2.5, labelangle=45, headlabel="True"] ;
2 [label="gini = 0.0\nsamples = 1230\nvalue = [0, 1230]"] ;
0 -> 2 [labeldistance=2.5, labelangle=-45, headlabel="False"] ;
}
